{"name": "anime4k/cnn-2x-s", "layers": {"conv2d_tf": {"name": "conv2d_tf", "type": "conv", "inputs": ["input_image"], "output": "conv2d_tf", "weights": [0.01075426, -0.08623381, -0.07737668, 0.028076384, 0.13822335, -0.028862331, -0.22832926, 0.03635659, 0.044491637, -0.02471274, -0.06069285, -0.014046501, 0.0, 0.0, 0.0, 0.0, -0.0830768, 0.03419268, 0.108954325, 0.0065012123, -0.20907241, -0.0482067, 0.30813405, 0.039350457, -0.03733311, 0.013860811, 0.09522458, 0.018052656, 0.0, 0.0, 0.0, 0.0, -0.12209557, 0.061089728, 0.04190933, -0.0041800914, -0.27575687, 0.18288922, 0.06379799, 0.05910099, -0.06677012, 0.013565886, -0.015929531, -0.021346513, 0.0, 0.0, 0.0, 0.0, 0.030947382, 0.17293786, -0.017891422, 0.028774435, -0.20000492, 0.10303977, 0.08179101, 0.066609725, -0.057577416, 0.025297329, 0.05671827, 0.01215871, 0.0, 0.0, 0.0, 0.0, 0.42436245, -0.3216191, 0.4783633, -0.047962572, 1.095703, -0.44149598, 0.90202075, -0.2204947, 0.21036331, -0.0749628, 0.08592108, -0.050559454, 0.0, 0.0, 0.0, 0.0, -0.3620907, -0.22088958, -0.3001116, -0.18489172, -0.7789555, -0.5628747, -0.6410179, -0.4405282, -0.121648006, -0.081794985, -0.07631196, -0.04562684, 0.0, 0.0, 0.0, 0.0, -0.09734891, -0.029890513, 0.082310654, 0.010322318, -0.049540825, 0.0790631, 0.13039897, 0.041542947, 0.023084527, 0.011445966, -0.01869956, 0.011056446, 0.0, 0.0, 0.0, 0.0, 0.23758632, 0.26992765, -0.18568642, -0.051573534, 0.31208408, 0.41118434, -0.4091006, -0.009351896, -0.0032207982, 0.051536866, -0.009732614, -0.024968486, 0.0, 0.0, 0.0, 0.0, -0.0466139, 0.10550445, -0.12904823, -0.044830177, -0.04421504, 0.27191642, -0.19671601, -0.13344595, 0.005217729, 0.05554863, -0.056229413, -0.05949737, 0.0, 0.0, 0.0, 0.0], "bias": [-0.042435233, 0.076454796, 0.018077083, 0.6549036]}, "conv2d_1_tf": {"name": "conv2d_1_tf", "type": "conv", "inputs": ["conv2d_tf"], "output": "conv2d_1_tf", "weights": [0.04325399, -0.0033834046, 0.0074574132, 0.0067270314, 0.17517671, -0.25659418, -0.07685202, 0.11362452, -0.002061352, 0.008248726, -0.083328314, 0.060299363, -0.33427814, 0.32401595, -0.037896674, -0.26572815, -0.032538075, 0.051658776, 0.038649224, -0.05168533, 0.105101354, -0.11785202, 0.16847081, -0.008219141, -0.0057018856, 0.08955024, -0.09375143, 0.088794164, -0.05979915, -0.0856858, -0.02202855, 0.15389718, -0.025930202, -0.1123754, 0.096411526, -0.10151773, 0.09003852, -0.11579928, -0.15683304, -0.013827607, -0.023630826, 0.124887094, -0.019800998, 0.08766362, 0.0115714185, -0.044842348, -0.0022130825, -0.09607518, 0.17290576, 0.342842, 0.19794388, 0.13981001, -0.14546898, -0.041450802, -0.035029758, -0.08107469, 0.1021763, 0.2235253, 0.06685262, 0.07489025, 0.20152351, -0.027077002, 0.33527517, 0.2053065, 0.35741884, -0.30549598, -0.06452077, -0.36149994, -0.38113028, 0.09180016, 0.02574676, 0.0027521984, 0.14794756, -0.056725513, -0.18537061, -0.21062484, -0.06868556, 0.1284739, -0.118928805, 0.17714642, -0.022470335, 0.07425043, 0.17103417, 0.13003084, -0.1771504, -0.063013054, -0.055561572, -0.111081995, 0.000568362, -0.0107299, -0.21189025, -0.20781897, 0.22198991, -0.0957056, 0.08689318, -0.003860444, 0.035913717, -0.01839091, 0.092459336, 0.013023229, 0.014392417, 0.0055734003, 0.060556155, 0.040994152, 0.0004067804, 0.12071235, -0.057124585, 0.0108008655, -0.14749175, -0.1342341, -0.1003331, -0.084022835, -0.14461191, 0.14136921, 0.28232443, 0.08794197, -0.09938231, -0.09076456, -0.028261393, -0.03640949, -0.16068284, 0.058565877, 0.13848497, 0.09584532, 0.13716696, -0.0034797105, -0.09583897, 0.1574438, -0.029749904, 0.05091714, 0.033848863, 0.25885215, -0.10404325, -0.07049378, 0.09319257, -0.22104815, 0.040198527, 0.021074094, -0.10464302, -0.07710294, 0.016034594, -0.033427484, -0.014300546, -0.18843634, 0.08085172, -0.068161726, 0.1152538, -0.049598664, -0.24634819, -0.14181212, 0.17590176, 0.34373742, 0.15122731, 0.030907957, -0.042781536, 0.010673196, -0.31298283, 0.095901884, -0.3317375, -0.019183172, 0.06447574, -0.062315118, 0.14634727, -0.081391566, 0.023995392, -0.09311298, 0.15764238, 0.26930025, 0.20921335, -0.072558776, 0.02476623, 0.13506466, -0.084738754, 0.11837055, 0.013237386, -0.23197325, -0.026665846, 0.022488633, 0.014491723, 0.05556519, -0.05185852, -0.02848894, 0.1454874, 0.21895358, 0.023587268, -0.015581068, -0.16315198, -0.04280538, -0.05911911, 0.0023391058, 0.1201799, -0.053948384, 0.104414724, -0.036588103, -0.058081653, -0.15482071, -0.3183936, -0.10457684, 0.25812963, -0.088573605, 0.063355595, 0.01816467, -0.42912003, 0.16263351, 0.25728762, -0.3738421, -0.15408424, -0.3323306, -0.09222361, 0.23036298, 0.2837331, 0.21646456, 0.076758675, -0.13673401, -0.31739992, -0.12127723, -0.30789104, 0.26683778, 0.30877435, 0.096174456, 0.21371612, -0.119668216, -0.36327758, -0.055557754, 0.07529794, -0.029158719, 0.06338614, -0.14693582, -0.014053556, 0.06509495, 0.116832264, 0.22769198, -0.038445994, 0.11897049, 0.01419356, 0.20804198, -0.08550652, 0.116026565, 0.06395592, -0.101407036, 0.17888138, 0.10163397, -0.11284668, -0.004984599, -0.14788337, -0.16194002, 0.12551522, -0.08009559, 0.10196769, 0.05260549, -0.16654941, 0.026250359, -0.03489276, -0.12964849, 0.37319258, 0.16028026, 0.10932516, -0.003776077, -0.028042207, -0.22630458, 0.017300984, 0.009691973, -0.048455954, 0.14523847, 0.29157746, -0.005852881, -0.16937388, -0.13934065, -0.054507893, 0.07908901, 0.015428953, 0.1719967, 0.019324966, -0.17274413, 0.050723396, -0.28394136, 0.05096151, 0.03478834, -0.044736095, 0.122075826, 0.08887366, 0.15266487, -0.09067955, 0.1333403, 0.014930765, 0.1483096, 0.032196913, 0.2630305], "bias": [0.044895932, -0.038558416, -0.041185874, 0.011334424]}, "conv2d_2_tf": {"name": "conv2d_2_tf", "type": "conv", "inputs": ["conv2d_1_tf"], "output": "conv2d_2_tf", "weights": [-0.034376346, 0.020483576, -0.055213086, -0.032454733, 0.11581688, -0.010406644, 0.012573355, 0.097151846, -0.22035949, -0.023310238, -0.085918404, -0.17573178, 0.04299849, -0.049133737, 0.08427422, 0.041008316, 0.05048281, -0.10825658, -0.0010538439, -0.05372658, -0.058623686, -0.16634572, -0.057287075, 0.112204954, -0.17264648, 0.007015595, -0.15451553, -0.16807671, 0.20058669, 0.020380324, 0.1389849, 0.2000005, 0.038290873, -0.02619077, 0.10882102, 0.17704703, 0.059796214, 0.14155364, 0.086838625, 0.051797662, -0.07614541, -0.006487613, -0.1009633, -0.16031943, 0.17111765, 0.13087782, 0.11141599, 0.12726924, -0.18109475, -0.05231774, -0.12021955, -0.12604505, 0.14488764, 0.06656742, 0.02459022, 0.086930044, -0.30831164, -0.08560675, -0.17664829, -0.10599541, 0.049585167, 0.038649485, 0.16217841, -0.0041800207, 0.09167935, -0.23796917, 0.017881801, 0.04952082, 0.44496155, -0.30259135, 0.36428794, 0.17641349, -0.20236322, 0.25922185, -0.36248907, -0.46679828, -0.028560001, 0.010784255, 0.23040633, -0.007438114, 0.21715368, 0.09913872, 0.15824866, 0.21493794, -0.08672689, -0.06659146, 0.00837896, 0.026655842, -0.06498338, -0.031682402, -0.10185783, -0.07650727, 0.32805458, 0.26284873, 0.008386862, 0.24764013, -0.11346868, 0.04022124, -0.04001942, -0.06198383, 0.11404099, -0.06753782, 0.09045227, 0.055148143, -0.2065882, 0.071698606, -0.17704701, -0.15704963, 0.13350299, -0.048917774, 0.070160955, 0.1484838, -0.16902359, -0.12746035, -0.11851207, -0.05105618, 0.015275163, -0.030584415, 0.12859008, -0.010083646, -0.081377536, -0.043896697, -0.115926206, -0.15506232, 0.35689327, -0.008917134, 0.0449354, 0.12821499, 0.18706502, 0.17841367, 0.12153514, 0.16999507, -0.002200194, 0.016984634, -0.085437894, -0.037846405, -0.07152532, 0.049837787, -0.01622448, -0.035906427, 0.02227169, -0.10557826, 0.12463476, 0.1343397, 0.11644541, 0.20901068, 0.011285087, 0.10661541, -0.04884117, 0.121944755, -0.022764277, -0.045656156, 0.1145362, 0.050327048, 0.07357935, 0.080574036, 0.05024491, -0.13329877, -0.06445926, -0.020399706, 0.09007566, -0.024661051, -0.15617476, 0.12697305, -0.023411086, 0.018250009, -0.081240274, -0.035161275, 0.15604511, 0.13418008, 0.14280088, 0.060062915, 0.044979267, 0.1678357, 0.11491153, -0.037549514, -0.17303096, -0.089637466, -0.015725477, -0.13492894, -0.036296718, 0.0018169694, -0.09826124, -0.107859656, 0.046453822, -0.08948875, 0.014687681, 0.09655096, -0.022582985, -0.07987279, -0.07922865, -0.08635348, 0.16166325, -0.084728375, 0.12719975, 0.05518139, -0.09621421, 0.0882481, -0.15059343, -0.08656229, 0.13520572, -0.10182409, 0.11556999, 0.110818766, 0.01300327, 0.20138808, -0.028032085, -0.05902199, 0.011400293, -0.030339692, 0.17401089, 0.085831694, 0.05889926, 0.20743541, 0.033167675, -0.024703432, -0.011838457, 0.30734026, -0.08948353, 0.15850373, -0.33542794, 0.066606864, -0.06517668, 0.0823199, 0.05001883, 0.18174733, -0.37823802, -0.34282705, -0.23478603, -0.21236046, -0.062434494, -0.105227634, -0.051137257, 0.017955517, 0.037432596, -0.09542656, -0.063654065, -0.01694663, 0.024973163, -0.03930144, 0.11265598, -0.064605914, 0.103548974, 0.08013939, -0.07754866, 0.116268106, -0.025286617, 0.015384071, 0.09227915, 0.015717272, 0.019541062, 0.09000547, -0.049595326, 0.091981836, -0.04971835, -0.100920305, -0.15808675, 0.19622089, -0.12384847, -0.09285196, -0.22773099, 0.12535985, -0.16599652, -0.11688204, 0.057569254, 0.07310019, 0.047386207, 0.07349469, 0.014636943, -0.09621362, 0.04667817, 0.07532532, -0.1426794, 0.04200306, -0.07059258, -0.0811487, -0.03266597, 0.022806708, 0.022671955, 0.056252226, -0.065791816, -0.010790193, -0.043097604, -0.035610724, 0.022735167, -0.02541568, 0.025712369, -0.037313268], "bias": [-0.0027262883, 0.008238997, 0.014498557, -0.0142624965]}, "conv2d_last_tf": {"name": "conv2d_last_tf", "type": "conv", "inputs": ["conv2d_2_tf"], "output": "conv2d_last_tf", "weights": [-0.03049657, 0.009833874, 0.02702781, -0.00705643, 0.067884356, -0.02139271, 0.034995228, -0.016097702, 0.07785771, -0.005253832, -0.042391095, -0.045813717, 0.085580595, 0.009281728, 0.06356147, -0.0025265266, -0.29977658, 0.045410793, -0.29158852, 0.07693422, 0.1547573, -0.013218959, 0.15928659, 0.0010328529, -0.0035380018, -0.05861964, 0.11803566, -0.053791106, 0.12586665, -0.0033004584, 0.13015158, 0.009230435, 0.005845442, 0.032100122, -0.07024098, 0.015957925, -0.003928188, 0.012122006, 0.024348052, -0.022285612, 0.01579558, -0.035824776, -0.009772794, -0.05266084, 0.003610048, -0.044718973, 0.032712292, -0.02288777, -0.053597696, -0.25128672, 0.045519356, -0.025287246, -0.03635571, 0.04542589, -0.06300975, -0.020455413, -0.14177164, 0.20770386, 0.022095868, 0.10575503, 0.1042906, 0.11671553, -0.06400251, 0.07651674, 0.2294459, -0.18599609, -0.054392606, -0.53771544, -0.16640599, 0.12733588, -0.11640396, 0.107244164, -0.23806606, -0.10900655, -0.30389145, 0.1632602, 0.17038229, 0.23182453, 0.41174975, 0.29264286, -0.047850117, -0.009752493, 0.08210321, 0.03314326, -0.0017211608, -0.004259531, -0.008699581, 0.08568075, -0.025660545, -0.030849371, -0.035143096, -0.046715744, 0.016539661, 0.09484556, -0.028287908, 0.08551443, -0.120466724, 0.0270685, -0.01797342, 0.1273449, 0.008855496, -0.00727372, 0.020524083, -0.0011586387, 0.10423398, -0.122802734, 0.03866133, -0.1161007, 0.048480835, 0.12358042, -0.05172115, -0.08725737, 0.029811071, 0.05237169, -0.04457642, 0.0066380086, -0.0022453, -0.05746637, -0.009918833, -0.020097518, -0.038082402, 0.058003824, 0.060717523, -0.044856004, -0.05109496, -0.119655766, -0.0054716156, 0.12741335, -0.003200749, -0.022527317, 0.002294204, -0.005383337, 0.022518983, -0.011492556, 0.012401844, -0.03281621, 0.008936972, 0.0043945257, -0.057721894, -0.015830811, 0.0074873464, -0.0010741595, 0.028981209, -0.051317945, 0.097931415, 0.12593012, -0.040586457, -0.028789068, -0.03990056, -0.01247565, -0.035783976, -0.00615395, 0.006086073, -0.080700055, 0.07048602, 0.013795729, -0.20194928, 0.0110520385, -0.111592464, 0.03824785, 0.082245216, -0.05678513, 0.27319786, 0.08693579, -0.09096249, 0.023803638, -0.0010949037, -0.06699341, 0.14604923, -0.0053200014, 0.07834845, -0.020715106, -0.050751098, 0.02452905, -0.21704338, -0.011973798, 0.030857038, -0.006099488, -0.025724804, -0.051013824, 0.07036401, 0.038410056, -0.19229533, -0.037534066, -0.03972505, 0.02509514, -0.03729973, -0.011755014, -0.009251225, -0.0093313325, 0.07267269, 0.026899025, 0.071944036, 0.072741695, -0.0059572924, 0.038333002, 0.1825895, 0.062037386, -0.006072185, -0.04106563, -0.23623623, -0.09150222, 0.020966088, 0.028991604, 0.13555194, -0.24346182, 0.06093154, -0.11254198, 0.021611795, 0.06294928, 0.16129817, 0.22065502, -0.35824955, -0.31386155, 0.25593677, 0.29707885, 0.33256713, 0.43379265, -0.31848225, 0.026656521, -0.42355236, -0.2110089, -0.105722845, -0.3732466, 0.0227657, 0.038220696, -0.012853821, -0.016885208, 0.07887425, 0.1055809, -0.02404264, -0.23766464, -0.011154301, -0.029464154, 0.21829915, 0.088542774, -0.03626627, -0.043948352, -0.1579797, 0.06702298, 0.020478131, 0.00090189854, 1.5427835e-05, -0.053418282, 0.014691959, 0.14277028, -0.0580565, -0.031172756, 0.042233873, -0.041412886, 0.014880169, 0.05502689, -0.04265844, 0.14176057, -0.035474226, 0.012110062, -0.043596238, 0.13169095, -0.060172737, 0.09075606, 0.090571724, -0.10489247, -0.018021984, 0.0128826685, 0.082646094, -0.10029123, 0.08724267, -0.27181008, -0.007418009, -0.15852457, 0.066791624, 0.19443166, -0.022704072, -0.015148895, -0.006805736, 0.04905777, -0.038168356, -0.0033081141, 0.016326891, 0.083454154, -0.028036404, -0.021074424, 0.06732135, 0.09039537, 0.07166327, 0.033188246, -0.051766507, -0.19551082], "bias": [-0.0030551853, -0.0065961676, -0.004623572, -0.007468637]}, "pixel_shuffle": {"name": "pixel_shuffle", "type": "pixel_shuffle", "inputs": ["conv2d_last_tf"], "output": "canvas"}}}